<?xml version="1.0"?>
<opencv_storage>
<stage7>
  <maxWeakCount>5</maxWeakCount>
  <stageThreshold>-9.8723977804183960e-01</stageThreshold>
  <weakClassifiers>
    <_>
      <internalNodes>
        0 -1 36299 3.0833972617983818e-02</internalNodes>
      <leafValues>
        -5.7398611307144165e-01 8.6123681068420410e-01</leafValues></_>
    <_>
      <internalNodes>
        0 -1 27780 -9.5781395211815834e-03</internalNodes>
      <leafValues>
        8.5934072732925415e-01 -3.8126668334007263e-01</leafValues></_>
    <_>
      <internalNodes>
        0 -1 109841 -6.5848618745803833e-02</internalNodes>
      <leafValues>
        5.3874903917312622e-01 -5.9248870611190796e-01</leafValues></_>
    <_>
      <internalNodes>
        0 -1 112682 5.0521874800324440e-03</internalNodes>
      <leafValues>
        3.0254030227661133e-01 -9.3044024705886841e-01</leafValues></_>
    <_>
      <internalNodes>
        0 -1 35116 1.0230481624603271e-02</internalNodes>
      <leafValues>
        2.5796148180961609e-01 -9.6297985315322876e-01</leafValues></_></weakClassifiers></stage7>
</opencv_storage>
