<?xml version="1.0"?>
<opencv_storage>
<stage3>
  <maxWeakCount>6</maxWeakCount>
  <stageThreshold>-1.3162703514099121e+00</stageThreshold>
  <weakClassifiers>
    <_>
      <internalNodes>
        0 -1 123536 -5.0082877278327942e-02</internalNodes>
      <leafValues>
        8.4537386894226074e-01 -6.3845270872116089e-01</leafValues></_>
    <_>
      <internalNodes>
        0 -1 65375 -1.1985719203948975e-01</internalNodes>
      <leafValues>
        4.9340677261352539e-01 -7.4419564008712769e-01</leafValues></_>
    <_>
      <internalNodes>
        0 -1 89332 -7.5930086895823479e-03</internalNodes>
      <leafValues>
        5.4789268970489502e-01 -6.4352351427078247e-01</leafValues></_>
    <_>
      <internalNodes>
        0 -1 69306 -1.6145385801792145e-02</internalNodes>
      <leafValues>
        7.5976002216339111e-01 -3.4271463751792908e-01</leafValues></_>
    <_>
      <internalNodes>
        0 -1 58902 -3.8504833355545998e-03</internalNodes>
      <leafValues>
        7.6390451192855835e-01 -4.4280022382736206e-01</leafValues></_>
    <_>
      <internalNodes>
        0 -1 62648 -1.3657769560813904e-01</internalNodes>
      <leafValues>
        3.9294168353080750e-01 -8.6506402492523193e-01</leafValues></_></weakClassifiers></stage3>
</opencv_storage>
