<?xml version="1.0"?>
<opencv_storage>
<stage8>
  <maxWeakCount>5</maxWeakCount>
  <stageThreshold>-1.7029556035995483e+00</stageThreshold>
  <weakClassifiers>
    <_>
      <internalNodes>
        0 -1 93518 -1.0099932551383972e-01</internalNodes>
      <leafValues>
        5.1757973432540894e-01 -7.5011485815048218e-01</leafValues></_>
    <_>
      <internalNodes>
        0 -1 69007 -1.2853008229285479e-03</internalNodes>
      <leafValues>
        -8.8731741905212402e-01 2.5136578083038330e-01</leafValues></_>
    <_>
      <internalNodes>
        0 -1 156085 8.6119846673682332e-04</internalNodes>
      <leafValues>
        2.5258743762969971e-01 -8.6675471067428589e-01</leafValues></_>
    <_>
      <internalNodes>
        0 -1 153116 -1.9540674984455109e-03</internalNodes>
      <leafValues>
        -9.5437419414520264e-01 3.0256822705268860e-01</leafValues></_>
    <_>
      <internalNodes>
        0 -1 38153 1.2945682741701603e-02</internalNodes>
      <leafValues>
        -6.4002007246017456e-01 3.7503603100776672e-01</leafValues></_></weakClassifiers></stage8>
</opencv_storage>
